<GAP_2025_8_7_0_21_5_39_686>
<Potential label="GAP_2025_8_7_0_21_5_39_686" init_args="IP GAP label=GAP_2025_8_7_0_21_5_39_686"/>
<GAP_params label="GAP_2025_8_7_0_21_5_39_686" gap_version="1686220958">
  <GAP_data do_core="F">
    <e0 Z="1" value=".00000000000000000E+000"/>
    <e0 Z="2" value=".00000000000000000E+000"/>
    <e0 Z="3" value=".00000000000000000E+000"/>
    <e0 Z="4" value=".00000000000000000E+000"/>
    <e0 Z="5" value=".00000000000000000E+000"/>
    <e0 Z="6" value=".00000000000000000E+000"/>
    <e0 Z="7" value=".00000000000000000E+000"/>
    <e0 Z="8" value=".00000000000000000E+000"/>
    <e0 Z="9" value=".00000000000000000E+000"/>
    <e0 Z="10" value=".00000000000000000E+000"/>
    <e0 Z="11" value=".00000000000000000E+000"/>
    <e0 Z="12" value=".00000000000000000E+000"/>
    <e0 Z="13" value=".00000000000000000E+000"/>
    <e0 Z="14" value=".00000000000000000E+000"/>
    <e0 Z="15" value=".00000000000000000E+000"/>
    <e0 Z="16" value=".00000000000000000E+000"/>
    <e0 Z="17" value=".00000000000000000E+000"/>
    <e0 Z="18" value=".00000000000000000E+000"/>
    <e0 Z="19" value=".00000000000000000E+000"/>
    <e0 Z="20" value=".00000000000000000E+000"/>
    <e0 Z="21" value=".00000000000000000E+000"/>
    <e0 Z="22" value=".00000000000000000E+000"/>
    <e0 Z="23" value=".00000000000000000E+000"/>
    <e0 Z="24" value=".00000000000000000E+000"/>
    <e0 Z="25" value=".00000000000000000E+000"/>
    <e0 Z="26" value=".00000000000000000E+000"/>
    <e0 Z="27" value=".00000000000000000E+000"/>
    <e0 Z="28" value=".00000000000000000E+000"/>
    <e0 Z="29" value=".00000000000000000E+000"/>
    <e0 Z="30" value=".00000000000000000E+000"/>
    <e0 Z="31" value=".00000000000000000E+000"/>
    <e0 Z="32" value=".00000000000000000E+000"/>
    <e0 Z="33" value=".00000000000000000E+000"/>
    <e0 Z="34" value=".00000000000000000E+000"/>
    <e0 Z="35" value=".00000000000000000E+000"/>
    <e0 Z="36" value=".00000000000000000E+000"/>
    <e0 Z="37" value=".00000000000000000E+000"/>
    <e0 Z="38" value=".00000000000000000E+000"/>
    <e0 Z="39" value=".00000000000000000E+000"/>
    <e0 Z="40" value=".00000000000000000E+000"/>
    <e0 Z="41" value=".00000000000000000E+000"/>
    <e0 Z="42" value=".00000000000000000E+000"/>
    <e0 Z="43" value=".00000000000000000E+000"/>
    <e0 Z="44" value=".00000000000000000E+000"/>
    <e0 Z="45" value=".00000000000000000E+000"/>
    <e0 Z="46" value=".00000000000000000E+000"/>
    <e0 Z="47" value=".00000000000000000E+000"/>
    <e0 Z="48" value=".00000000000000000E+000"/>
    <e0 Z="49" value=".00000000000000000E+000"/>
    <e0 Z="50" value=".00000000000000000E+000"/>
    <e0 Z="51" value=".00000000000000000E+000"/>
    <e0 Z="52" value=".00000000000000000E+000"/>
    <e0 Z="53" value=".00000000000000000E+000"/>
    <e0 Z="54" value=".00000000000000000E+000"/>
    <e0 Z="55" value=".00000000000000000E+000"/>
    <e0 Z="56" value=".00000000000000000E+000"/>
    <e0 Z="57" value=".00000000000000000E+000"/>
    <e0 Z="58" value=".00000000000000000E+000"/>
    <e0 Z="59" value=".00000000000000000E+000"/>
    <e0 Z="60" value=".00000000000000000E+000"/>
    <e0 Z="61" value=".00000000000000000E+000"/>
    <e0 Z="62" value=".00000000000000000E+000"/>
    <e0 Z="63" value=".00000000000000000E+000"/>
    <e0 Z="64" value=".00000000000000000E+000"/>
    <e0 Z="65" value=".00000000000000000E+000"/>
    <e0 Z="66" value=".00000000000000000E+000"/>
    <e0 Z="67" value=".00000000000000000E+000"/>
    <e0 Z="68" value=".00000000000000000E+000"/>
    <e0 Z="69" value=".00000000000000000E+000"/>
    <e0 Z="70" value=".00000000000000000E+000"/>
    <e0 Z="71" value=".00000000000000000E+000"/>
    <e0 Z="72" value=".00000000000000000E+000"/>
    <e0 Z="73" value=".00000000000000000E+000"/>
    <e0 Z="74" value=".00000000000000000E+000"/>
    <e0 Z="75" value=".00000000000000000E+000"/>
    <e0 Z="76" value=".00000000000000000E+000"/>
    <e0 Z="77" value=".00000000000000000E+000"/>
    <e0 Z="78" value=".00000000000000000E+000"/>
    <e0 Z="79" value=".00000000000000000E+000"/>
    <e0 Z="80" value=".00000000000000000E+000"/>
    <e0 Z="81" value=".00000000000000000E+000"/>
    <e0 Z="82" value=".00000000000000000E+000"/>
    <e0 Z="83" value=".00000000000000000E+000"/>
    <e0 Z="84" value=".00000000000000000E+000"/>
    <e0 Z="85" value=".00000000000000000E+000"/>
    <e0 Z="86" value=".00000000000000000E+000"/>
    <e0 Z="87" value=".00000000000000000E+000"/>
    <e0 Z="88" value=".00000000000000000E+000"/>
    <e0 Z="89" value=".00000000000000000E+000"/>
    <e0 Z="90" value=".00000000000000000E+000"/>
    <e0 Z="91" value=".00000000000000000E+000"/>
    <e0 Z="92" value=".00000000000000000E+000"/>
    <e0 Z="93" value=".00000000000000000E+000"/>
    <e0 Z="94" value=".00000000000000000E+000"/>
    <e0 Z="95" value=".00000000000000000E+000"/>
    <e0 Z="96" value=".00000000000000000E+000"/>
    <e0 Z="97" value=".00000000000000000E+000"/>
    <e0 Z="98" value=".00000000000000000E+000"/>
    <e0 Z="99" value=".00000000000000000E+000"/>
    <e0 Z="100" value=".00000000000000000E+000"/>
    <e0 Z="101" value=".00000000000000000E+000"/>
    <e0 Z="102" value=".00000000000000000E+000"/>
    <e0 Z="103" value=".00000000000000000E+000"/>
    <e0 Z="104" value=".00000000000000000E+000"/>
    <e0 Z="105" value=".00000000000000000E+000"/>
    <e0 Z="106" value=".00000000000000000E+000"/>
    <e0 Z="107" value=".00000000000000000E+000"/>
    <e0 Z="108" value=".00000000000000000E+000"/>
    <e0 Z="109" value=".00000000000000000E+000"/>
    <e0 Z="110" value=".00000000000000000E+000"/>
    <e0 Z="111" value=".00000000000000000E+000"/>
    <e0 Z="112" value=".00000000000000000E+000"/>
    <e0 Z="113" value=".00000000000000000E+000"/>
    <e0 Z="114" value=".00000000000000000E+000"/>
    <e0 Z="115" value=".00000000000000000E+000"/>
    <e0 Z="116" value=".00000000000000000E+000"/>
    <e0 Z="117" value=".00000000000000000E+000"/>
    <e0 Z="118" value=".00000000000000000E+000"/>
  </GAP_data>
  <gpSparse label="GAP_2025_8_7_0_21_5_39_686" n_coordinate="1" fitted="T">
    <gpCoordinates label="GAP_2025_8_7_0_21_5_39_6861" dimensions="51" signal_variance="1.0000000000000000" signal_mean=".00000000000000000E+000" sparsified="T" n_permutations="1" covariance_type="2" zeta="4.0000000000000000" n_sparseX="500" sparseX_filename="C_GAP.xml.sparseX.GAP_2025_8_7_0_21_5_39_6861" sparseX_md5sum="f40d41b3cf409c54f91391cdea45aa96">
      <descriptor>SOAP cutoff=3.0 l_max=4 n_max=4 atom_sigma=0.5 zeta=4 delta=1.0  n_species=1 species_Z=6   n_sparse=500 sparse_method=cur_points covariance_type=dot_product n_species=1 Z=6 species_Z={6 }</descriptor>
      <permutation i="1">1  </permutation>
      <sparseX i="1" alpha="19157.018420578792" sparseCutoff="1.0000000000000000"/>
      <sparseX i="2" alpha="10155.966905478806" sparseCutoff="1.0000000000000000"/>
      <sparseX i="3" alpha="-3905.2561099899772" sparseCutoff="1.0000000000000000"/>
      <sparseX i="4" alpha="7567.0094319994651" sparseCutoff="1.0000000000000000"/>
      <sparseX i="5" alpha="818.57796786068582" sparseCutoff="1.0000000000000000"/>
      <sparseX i="6" alpha="13980.684301122092" sparseCutoff="1.0000000000000000"/>
      <sparseX i="7" alpha="-6244.2210457889778" sparseCutoff="1.0000000000000000"/>
      <sparseX i="8" alpha="13186.820936351063" sparseCutoff="1.0000000000000000"/>
      <sparseX i="9" alpha="1578.3544973024264" sparseCutoff="1.0000000000000000"/>
      <sparseX i="10" alpha="6109.2794325954437" sparseCutoff="1.0000000000000000"/>
      <sparseX i="11" alpha="4540.6857469063598" sparseCutoff="1.0000000000000000"/>
      <sparseX i="12" alpha="7721.5047628260045" sparseCutoff="1.0000000000000000"/>
      <sparseX i="13" alpha="-27760.425586474910" sparseCutoff="1.0000000000000000"/>
      <sparseX i="14" alpha="1254.4214062831691" sparseCutoff="1.0000000000000000"/>
      <sparseX i="15" alpha="-41072.732540605932" sparseCutoff="1.0000000000000000"/>
      <sparseX i="16" alpha="9434.4305116265459" sparseCutoff="1.0000000000000000"/>
      <sparseX i="17" alpha="2358.2618418582920" sparseCutoff="1.0000000000000000"/>
      <sparseX i="18" alpha="-7653.8682168990308" sparseCutoff="1.0000000000000000"/>
      <sparseX i="19" alpha="-1088.3112987174995" sparseCutoff="1.0000000000000000"/>
      <sparseX i="20" alpha="12980.702722619488" sparseCutoff="1.0000000000000000"/>
      <sparseX i="21" alpha="-1344.0032595467394" sparseCutoff="1.0000000000000000"/>
      <sparseX i="22" alpha="-1318.4202922764844" sparseCutoff="1.0000000000000000"/>
      <sparseX i="23" alpha="16437.597032296697" sparseCutoff="1.0000000000000000"/>
      <sparseX i="24" alpha="-7029.4239476453922" sparseCutoff="1.0000000000000000"/>
      <sparseX i="25" alpha="4859.6066572210775" sparseCutoff="1.0000000000000000"/>
      <sparseX i="26" alpha="-2860.5042723105371" sparseCutoff="1.0000000000000000"/>
      <sparseX i="27" alpha="7327.2407287941242" sparseCutoff="1.0000000000000000"/>
      <sparseX i="28" alpha="-17175.658133284327" sparseCutoff="1.0000000000000000"/>
      <sparseX i="29" alpha="271.77205108303588" sparseCutoff="1.0000000000000000"/>
      <sparseX i="30" alpha="-4783.8920654491449" sparseCutoff="1.0000000000000000"/>
      <sparseX i="31" alpha="-7875.0900296918671" sparseCutoff="1.0000000000000000"/>
      <sparseX i="32" alpha="24483.089867140472" sparseCutoff="1.0000000000000000"/>
      <sparseX i="33" alpha="-20745.779894230458" sparseCutoff="1.0000000000000000"/>
      <sparseX i="34" alpha="63722.255281964353" sparseCutoff="1.0000000000000000"/>
      <sparseX i="35" alpha="19718.230759978189" sparseCutoff="1.0000000000000000"/>
      <sparseX i="36" alpha="-10735.432763280964" sparseCutoff="1.0000000000000000"/>
      <sparseX i="37" alpha="-29495.778058297034" sparseCutoff="1.0000000000000000"/>
      <sparseX i="38" alpha="-73459.071149644093" sparseCutoff="1.0000000000000000"/>
      <sparseX i="39" alpha="-21164.477657728126" sparseCutoff="1.0000000000000000"/>
      <sparseX i="40" alpha="-3324.7886133089196" sparseCutoff="1.0000000000000000"/>
      <sparseX i="41" alpha="-3481.4983323046567" sparseCutoff="1.0000000000000000"/>
      <sparseX i="42" alpha="8603.1947599991345" sparseCutoff="1.0000000000000000"/>
      <sparseX i="43" alpha="284930.69371792814" sparseCutoff="1.0000000000000000"/>
      <sparseX i="44" alpha="3710.4195933197129" sparseCutoff="1.0000000000000000"/>
      <sparseX i="45" alpha="1112.8795399292001" sparseCutoff="1.0000000000000000"/>
      <sparseX i="46" alpha="-3840.2366587131655" sparseCutoff="1.0000000000000000"/>
      <sparseX i="47" alpha="3796.1519791384217" sparseCutoff="1.0000000000000000"/>
      <sparseX i="48" alpha="6507.4699495102059" sparseCutoff="1.0000000000000000"/>
      <sparseX i="49" alpha="-11247.132180185527" sparseCutoff="1.0000000000000000"/>
      <sparseX i="50" alpha="-1878.5046070586066" sparseCutoff="1.0000000000000000"/>
      <sparseX i="51" alpha="-349.90651220458375" sparseCutoff="1.0000000000000000"/>
      <sparseX i="52" alpha="-6645.7175388298328" sparseCutoff="1.0000000000000000"/>
      <sparseX i="53" alpha="3355.1529437820527" sparseCutoff="1.0000000000000000"/>
      <sparseX i="54" alpha="4709.2492103207387" sparseCutoff="1.0000000000000000"/>
      <sparseX i="55" alpha="-1589.5171183245313" sparseCutoff="1.0000000000000000"/>
      <sparseX i="56" alpha="7667.5454822966640" sparseCutoff="1.0000000000000000"/>
      <sparseX i="57" alpha="3045.6698144676043" sparseCutoff="1.0000000000000000"/>
      <sparseX i="58" alpha="-27538.272991637423" sparseCutoff="1.0000000000000000"/>
      <sparseX i="59" alpha="28232.463578769872" sparseCutoff="1.0000000000000000"/>
      <sparseX i="60" alpha="2478.8514508985390" sparseCutoff="1.0000000000000000"/>
      <sparseX i="61" alpha="379.81301678407397" sparseCutoff="1.0000000000000000"/>
      <sparseX i="62" alpha="3479.6410289539363" sparseCutoff="1.0000000000000000"/>
      <sparseX i="63" alpha="-5911.8315719068287" sparseCutoff="1.0000000000000000"/>
      <sparseX i="64" alpha="1150.0424015910037" sparseCutoff="1.0000000000000000"/>
      <sparseX i="65" alpha="-31288.532814990289" sparseCutoff="1.0000000000000000"/>
      <sparseX i="66" alpha="-7662.4386348154803" sparseCutoff="1.0000000000000000"/>
      <sparseX i="67" alpha="16919.409840751043" sparseCutoff="1.0000000000000000"/>
      <sparseX i="68" alpha="-8544.7242371041739" sparseCutoff="1.0000000000000000"/>
      <sparseX i="69" alpha="-28082.775726115327" sparseCutoff="1.0000000000000000"/>
      <sparseX i="70" alpha="11083.339140963164" sparseCutoff="1.0000000000000000"/>
      <sparseX i="71" alpha="-19289.171237879305" sparseCutoff="1.0000000000000000"/>
      <sparseX i="72" alpha="25865.315594326261" sparseCutoff="1.0000000000000000"/>
      <sparseX i="73" alpha="-22590.943887457219" sparseCutoff="1.0000000000000000"/>
      <sparseX i="74" alpha="-114956.92645082902" sparseCutoff="1.0000000000000000"/>
      <sparseX i="75" alpha="7144.9690903133996" sparseCutoff="1.0000000000000000"/>
      <sparseX i="76" alpha="-13691.412632299696" sparseCutoff="1.0000000000000000"/>
      <sparseX i="77" alpha="-4974.5217103693212" sparseCutoff="1.0000000000000000"/>
      <sparseX i="78" alpha="75984.149994660300" sparseCutoff="1.0000000000000000"/>
      <sparseX i="79" alpha="-8895.2977165603170" sparseCutoff="1.0000000000000000"/>
      <sparseX i="80" alpha="14426.727564360141" sparseCutoff="1.0000000000000000"/>
      <sparseX i="81" alpha="-9260.5116669838644" sparseCutoff="1.0000000000000000"/>
      <sparseX i="82" alpha="-73357.551105956300" sparseCutoff="1.0000000000000000"/>
      <sparseX i="83" alpha="-12014.319544351860" sparseCutoff="1.0000000000000000"/>
      <sparseX i="84" alpha="50338.296770893467" sparseCutoff="1.0000000000000000"/>
      <sparseX i="85" alpha="39180.689731443366" sparseCutoff="1.0000000000000000"/>
      <sparseX i="86" alpha="36882.028987922291" sparseCutoff="1.0000000000000000"/>
      <sparseX i="87" alpha="-14221.981436960137" sparseCutoff="1.0000000000000000"/>
      <sparseX i="88" alpha="78655.548096316314" sparseCutoff="1.0000000000000000"/>
      <sparseX i="89" alpha="-81747.348336227413" sparseCutoff="1.0000000000000000"/>
      <sparseX i="90" alpha="3257.9630948880658" sparseCutoff="1.0000000000000000"/>
      <sparseX i="91" alpha="14047.017807146771" sparseCutoff="1.0000000000000000"/>
      <sparseX i="92" alpha="-106194.43868907027" sparseCutoff="1.0000000000000000"/>
      <sparseX i="93" alpha="-33541.032237663421" sparseCutoff="1.0000000000000000"/>
      <sparseX i="94" alpha="-73831.001706412950" sparseCutoff="1.0000000000000000"/>
      <sparseX i="95" alpha="34424.904037817170" sparseCutoff="1.0000000000000000"/>
      <sparseX i="96" alpha="21297.551057316308" sparseCutoff="1.0000000000000000"/>
      <sparseX i="97" alpha="15045.661496648054" sparseCutoff="1.0000000000000000"/>
      <sparseX i="98" alpha="-17317.190431437757" sparseCutoff="1.0000000000000000"/>
      <sparseX i="99" alpha="23465.759163263730" sparseCutoff="1.0000000000000000"/>
      <sparseX i="100" alpha="1853.5446820442050" sparseCutoff="1.0000000000000000"/>
      <sparseX i="101" alpha="12021.443536153580" sparseCutoff="1.0000000000000000"/>
      <sparseX i="102" alpha="-955.38874619307467" sparseCutoff="1.0000000000000000"/>
      <sparseX i="103" alpha="432.49554598041175" sparseCutoff="1.0000000000000000"/>
      <sparseX i="104" alpha="-4494.0279683038580" sparseCutoff="1.0000000000000000"/>
      <sparseX i="105" alpha="25257.061964072251" sparseCutoff="1.0000000000000000"/>
      <sparseX i="106" alpha="-13084.274783876002" sparseCutoff="1.0000000000000000"/>
      <sparseX i="107" alpha="5554.5758305952531" sparseCutoff="1.0000000000000000"/>
      <sparseX i="108" alpha="8051.6415765530182" sparseCutoff="1.0000000000000000"/>
      <sparseX i="109" alpha="-6567.4437524588384" sparseCutoff="1.0000000000000000"/>
      <sparseX i="110" alpha="17171.888847804035" sparseCutoff="1.0000000000000000"/>
      <sparseX i="111" alpha="24690.720902149267" sparseCutoff="1.0000000000000000"/>
      <sparseX i="112" alpha="-3242.0782794089132" sparseCutoff="1.0000000000000000"/>
      <sparseX i="113" alpha="657.17041097958895" sparseCutoff="1.0000000000000000"/>
      <sparseX i="114" alpha="5034.1917524081500" sparseCutoff="1.0000000000000000"/>
      <sparseX i="115" alpha="-1395.8766440936856" sparseCutoff="1.0000000000000000"/>
      <sparseX i="116" alpha="-135.95037200519482" sparseCutoff="1.0000000000000000"/>
      <sparseX i="117" alpha="-212.20302207397103" sparseCutoff="1.0000000000000000"/>
      <sparseX i="118" alpha="11143.304533898778" sparseCutoff="1.0000000000000000"/>
      <sparseX i="119" alpha="-1133.5174859951105" sparseCutoff="1.0000000000000000"/>
      <sparseX i="120" alpha="-5504.0783043202382" sparseCutoff="1.0000000000000000"/>
      <sparseX i="121" alpha="2258.0430101726893" sparseCutoff="1.0000000000000000"/>
      <sparseX i="122" alpha="-9814.2810025087638" sparseCutoff="1.0000000000000000"/>
      <sparseX i="123" alpha="-21136.726110871568" sparseCutoff="1.0000000000000000"/>
      <sparseX i="124" alpha="-64427.577940897645" sparseCutoff="1.0000000000000000"/>
      <sparseX i="125" alpha="14909.185938550596" sparseCutoff="1.0000000000000000"/>
      <sparseX i="126" alpha="-5561.1883132008661" sparseCutoff="1.0000000000000000"/>
      <sparseX i="127" alpha="1502.2287368167458" sparseCutoff="1.0000000000000000"/>
      <sparseX i="128" alpha="-1406.9211340288011" sparseCutoff="1.0000000000000000"/>
      <sparseX i="129" alpha="10577.860167533130" sparseCutoff="1.0000000000000000"/>
      <sparseX i="130" alpha="7266.6441093956100" sparseCutoff="1.0000000000000000"/>
      <sparseX i="131" alpha="-31523.983397842079" sparseCutoff="1.0000000000000000"/>
      <sparseX i="132" alpha="8158.3092559398492" sparseCutoff="1.0000000000000000"/>
      <sparseX i="133" alpha="28541.729426319565" sparseCutoff="1.0000000000000000"/>
      <sparseX i="134" alpha="47076.428084330386" sparseCutoff="1.0000000000000000"/>
      <sparseX i="135" alpha="25448.723376009624" sparseCutoff="1.0000000000000000"/>
      <sparseX i="136" alpha="28190.178505964977" sparseCutoff="1.0000000000000000"/>
      <sparseX i="137" alpha="14662.775318577749" sparseCutoff="1.0000000000000000"/>
      <sparseX i="138" alpha="8335.6459844577694" sparseCutoff="1.0000000000000000"/>
      <sparseX i="139" alpha="16216.941275506559" sparseCutoff="1.0000000000000000"/>
      <sparseX i="140" alpha="21766.844745942017" sparseCutoff="1.0000000000000000"/>
      <sparseX i="141" alpha="-15529.181693153989" sparseCutoff="1.0000000000000000"/>
      <sparseX i="142" alpha="-34762.603752636009" sparseCutoff="1.0000000000000000"/>
      <sparseX i="143" alpha="-1225.0827886811589" sparseCutoff="1.0000000000000000"/>
      <sparseX i="144" alpha="-64027.341142305144" sparseCutoff="1.0000000000000000"/>
      <sparseX i="145" alpha="23120.510012608469" sparseCutoff="1.0000000000000000"/>
      <sparseX i="146" alpha="-44693.163799714144" sparseCutoff="1.0000000000000000"/>
      <sparseX i="147" alpha="64489.322185716068" sparseCutoff="1.0000000000000000"/>
      <sparseX i="148" alpha="16056.014605092523" sparseCutoff="1.0000000000000000"/>
      <sparseX i="149" alpha="-18594.850937667452" sparseCutoff="1.0000000000000000"/>
      <sparseX i="150" alpha="8256.8991293316067" sparseCutoff="1.0000000000000000"/>
      <sparseX i="151" alpha="7109.2878312344301" sparseCutoff="1.0000000000000000"/>
      <sparseX i="152" alpha="73051.504745820843" sparseCutoff="1.0000000000000000"/>
      <sparseX i="153" alpha="7470.3001286794597" sparseCutoff="1.0000000000000000"/>
      <sparseX i="154" alpha="494.10429053418994" sparseCutoff="1.0000000000000000"/>
      <sparseX i="155" alpha="-8102.2207471580959" sparseCutoff="1.0000000000000000"/>
      <sparseX i="156" alpha="7143.4222620796918" sparseCutoff="1.0000000000000000"/>
      <sparseX i="157" alpha="9698.9947535555020" sparseCutoff="1.0000000000000000"/>
      <sparseX i="158" alpha="5310.3282777527857" sparseCutoff="1.0000000000000000"/>
      <sparseX i="159" alpha="-3344.2534996503437" sparseCutoff="1.0000000000000000"/>
      <sparseX i="160" alpha="-6427.8000408097651" sparseCutoff="1.0000000000000000"/>
      <sparseX i="161" alpha="-832.64988155205674" sparseCutoff="1.0000000000000000"/>
      <sparseX i="162" alpha="-134.37223819591139" sparseCutoff="1.0000000000000000"/>
      <sparseX i="163" alpha="11505.179505396771" sparseCutoff="1.0000000000000000"/>
      <sparseX i="164" alpha="-1639.9037859839175" sparseCutoff="1.0000000000000000"/>
      <sparseX i="165" alpha="2082.4533713411370" sparseCutoff="1.0000000000000000"/>
      <sparseX i="166" alpha="946.15116367547114" sparseCutoff="1.0000000000000000"/>
      <sparseX i="167" alpha="3211.6311660960860" sparseCutoff="1.0000000000000000"/>
      <sparseX i="168" alpha="8095.7891223129418" sparseCutoff="1.0000000000000000"/>
      <sparseX i="169" alpha="160.41558846645052" sparseCutoff="1.0000000000000000"/>
      <sparseX i="170" alpha="-602.44439580043695" sparseCutoff="1.0000000000000000"/>
      <sparseX i="171" alpha="1561.5766493151662" sparseCutoff="1.0000000000000000"/>
      <sparseX i="172" alpha="13200.674249573043" sparseCutoff="1.0000000000000000"/>
      <sparseX i="173" alpha="-6553.2926689128608" sparseCutoff="1.0000000000000000"/>
      <sparseX i="174" alpha="3597.8141489945046" sparseCutoff="1.0000000000000000"/>
      <sparseX i="175" alpha="-100.73420551078742" sparseCutoff="1.0000000000000000"/>
      <sparseX i="176" alpha="21357.419904382328" sparseCutoff="1.0000000000000000"/>
      <sparseX i="177" alpha="2818.9755290544654" sparseCutoff="1.0000000000000000"/>
      <sparseX i="178" alpha="35242.623552115918" sparseCutoff="1.0000000000000000"/>
      <sparseX i="179" alpha="-10686.308104680214" sparseCutoff="1.0000000000000000"/>
      <sparseX i="180" alpha="-3776.6698889397981" sparseCutoff="1.0000000000000000"/>
      <sparseX i="181" alpha="-479.08638160283687" sparseCutoff="1.0000000000000000"/>
      <sparseX i="182" alpha="-14545.775286282606" sparseCutoff="1.0000000000000000"/>
      <sparseX i="183" alpha="24647.913455188911" sparseCutoff="1.0000000000000000"/>
      <sparseX i="184" alpha="-7389.5286550631945" sparseCutoff="1.0000000000000000"/>
      <sparseX i="185" alpha="12620.707909932455" sparseCutoff="1.0000000000000000"/>
      <sparseX i="186" alpha="15815.773473789939" sparseCutoff="1.0000000000000000"/>
      <sparseX i="187" alpha="-3159.4687673146245" sparseCutoff="1.0000000000000000"/>
      <sparseX i="188" alpha="383.96517759008009" sparseCutoff="1.0000000000000000"/>
      <sparseX i="189" alpha="-21785.264254032365" sparseCutoff="1.0000000000000000"/>
      <sparseX i="190" alpha="-15525.792090304933" sparseCutoff="1.0000000000000000"/>
      <sparseX i="191" alpha="-14609.796021025988" sparseCutoff="1.0000000000000000"/>
      <sparseX i="192" alpha="-11103.103450217939" sparseCutoff="1.0000000000000000"/>
      <sparseX i="193" alpha="695.59917019749435" sparseCutoff="1.0000000000000000"/>
      <sparseX i="194" alpha="-43276.722003654089" sparseCutoff="1.0000000000000000"/>
      <sparseX i="195" alpha="1716.5773639820200" sparseCutoff="1.0000000000000000"/>
      <sparseX i="196" alpha="23646.195273488793" sparseCutoff="1.0000000000000000"/>
      <sparseX i="197" alpha="-34705.629185499594" sparseCutoff="1.0000000000000000"/>
      <sparseX i="198" alpha="29108.928800312089" sparseCutoff="1.0000000000000000"/>
      <sparseX i="199" alpha="-14035.483877962604" sparseCutoff="1.0000000000000000"/>
      <sparseX i="200" alpha="26952.398011310630" sparseCutoff="1.0000000000000000"/>
      <sparseX i="201" alpha="-40586.081523460940" sparseCutoff="1.0000000000000000"/>
      <sparseX i="202" alpha="-53994.618911522455" sparseCutoff="1.0000000000000000"/>
      <sparseX i="203" alpha="7885.1979631186059" sparseCutoff="1.0000000000000000"/>
      <sparseX i="204" alpha="82824.501181011859" sparseCutoff="1.0000000000000000"/>
      <sparseX i="205" alpha="103687.91141934018" sparseCutoff="1.0000000000000000"/>
      <sparseX i="206" alpha="12525.499891802307" sparseCutoff="1.0000000000000000"/>
      <sparseX i="207" alpha="45211.406188796820" sparseCutoff="1.0000000000000000"/>
      <sparseX i="208" alpha="-26607.954953579421" sparseCutoff="1.0000000000000000"/>
      <sparseX i="209" alpha="6445.8466117110138" sparseCutoff="1.0000000000000000"/>
      <sparseX i="210" alpha="22032.992060520992" sparseCutoff="1.0000000000000000"/>
      <sparseX i="211" alpha="7111.9260291148457" sparseCutoff="1.0000000000000000"/>
      <sparseX i="212" alpha="-14349.752370297361" sparseCutoff="1.0000000000000000"/>
      <sparseX i="213" alpha="2540.5640310942476" sparseCutoff="1.0000000000000000"/>
      <sparseX i="214" alpha="3312.4352087892962" sparseCutoff="1.0000000000000000"/>
      <sparseX i="215" alpha="-1478.9555675283032" sparseCutoff="1.0000000000000000"/>
      <sparseX i="216" alpha="-19721.419553286745" sparseCutoff="1.0000000000000000"/>
      <sparseX i="217" alpha="7840.5151915002598" sparseCutoff="1.0000000000000000"/>
      <sparseX i="218" alpha="4012.2392659535581" sparseCutoff="1.0000000000000000"/>
      <sparseX i="219" alpha="3194.1718642927667" sparseCutoff="1.0000000000000000"/>
      <sparseX i="220" alpha="112402.94389615406" sparseCutoff="1.0000000000000000"/>
      <sparseX i="221" alpha="13824.859973703007" sparseCutoff="1.0000000000000000"/>
      <sparseX i="222" alpha="12702.277834876873" sparseCutoff="1.0000000000000000"/>
      <sparseX i="223" alpha="-5666.2412066563247" sparseCutoff="1.0000000000000000"/>
      <sparseX i="224" alpha="-27855.828465004110" sparseCutoff="1.0000000000000000"/>
      <sparseX i="225" alpha="-9351.1162523099338" sparseCutoff="1.0000000000000000"/>
      <sparseX i="226" alpha="-56882.636273206015" sparseCutoff="1.0000000000000000"/>
      <sparseX i="227" alpha="24950.757026810024" sparseCutoff="1.0000000000000000"/>
      <sparseX i="228" alpha="-17241.355072548384" sparseCutoff="1.0000000000000000"/>
      <sparseX i="229" alpha="-741.31412181620897" sparseCutoff="1.0000000000000000"/>
      <sparseX i="230" alpha="22296.209036691664" sparseCutoff="1.0000000000000000"/>
      <sparseX i="231" alpha="37552.244393784829" sparseCutoff="1.0000000000000000"/>
      <sparseX i="232" alpha="-16318.822137685964" sparseCutoff="1.0000000000000000"/>
      <sparseX i="233" alpha="4006.6406569853802" sparseCutoff="1.0000000000000000"/>
      <sparseX i="234" alpha="7967.0877944123704" sparseCutoff="1.0000000000000000"/>
      <sparseX i="235" alpha="3141.0929580938587" sparseCutoff="1.0000000000000000"/>
      <sparseX i="236" alpha="-3300.3472609608634" sparseCutoff="1.0000000000000000"/>
      <sparseX i="237" alpha="-57941.061861496346" sparseCutoff="1.0000000000000000"/>
      <sparseX i="238" alpha="-16033.305413446889" sparseCutoff="1.0000000000000000"/>
      <sparseX i="239" alpha="13388.805528498926" sparseCutoff="1.0000000000000000"/>
      <sparseX i="240" alpha="-7709.8657110039721" sparseCutoff="1.0000000000000000"/>
      <sparseX i="241" alpha="8527.4403673081270" sparseCutoff="1.0000000000000000"/>
      <sparseX i="242" alpha="-3889.3482455138692" sparseCutoff="1.0000000000000000"/>
      <sparseX i="243" alpha="4699.5227152952202" sparseCutoff="1.0000000000000000"/>
      <sparseX i="244" alpha="-22504.751059839644" sparseCutoff="1.0000000000000000"/>
      <sparseX i="245" alpha="14260.657037050698" sparseCutoff="1.0000000000000000"/>
      <sparseX i="246" alpha="-9696.9557838021174" sparseCutoff="1.0000000000000000"/>
      <sparseX i="247" alpha="-36988.801176592460" sparseCutoff="1.0000000000000000"/>
      <sparseX i="248" alpha="-982.67141955827060" sparseCutoff="1.0000000000000000"/>
      <sparseX i="249" alpha="-804.23545950828873" sparseCutoff="1.0000000000000000"/>
      <sparseX i="250" alpha="-28882.945381944246" sparseCutoff="1.0000000000000000"/>
      <sparseX i="251" alpha="65103.763745541240" sparseCutoff="1.0000000000000000"/>
      <sparseX i="252" alpha="1773.6974208901977" sparseCutoff="1.0000000000000000"/>
      <sparseX i="253" alpha="-14600.582515656344" sparseCutoff="1.0000000000000000"/>
      <sparseX i="254" alpha="1460.9147517639551" sparseCutoff="1.0000000000000000"/>
      <sparseX i="255" alpha="-152550.19193060437" sparseCutoff="1.0000000000000000"/>
      <sparseX i="256" alpha="-19538.531077069834" sparseCutoff="1.0000000000000000"/>
      <sparseX i="257" alpha="907.39201810324903" sparseCutoff="1.0000000000000000"/>
      <sparseX i="258" alpha="29827.619170806389" sparseCutoff="1.0000000000000000"/>
      <sparseX i="259" alpha="1415.7215919420564" sparseCutoff="1.0000000000000000"/>
      <sparseX i="260" alpha="-4578.2218900188755" sparseCutoff="1.0000000000000000"/>
      <sparseX i="261" alpha="-29838.230407047908" sparseCutoff="1.0000000000000000"/>
      <sparseX i="262" alpha="-35186.523165847459" sparseCutoff="1.0000000000000000"/>
      <sparseX i="263" alpha="11939.058527795720" sparseCutoff="1.0000000000000000"/>
      <sparseX i="264" alpha="-8377.3699643129330" sparseCutoff="1.0000000000000000"/>
      <sparseX i="265" alpha="25306.972513059336" sparseCutoff="1.0000000000000000"/>
      <sparseX i="266" alpha="-26892.001658784851" sparseCutoff="1.0000000000000000"/>
      <sparseX i="267" alpha="-6372.9547775159526" sparseCutoff="1.0000000000000000"/>
      <sparseX i="268" alpha="3574.2707506792144" sparseCutoff="1.0000000000000000"/>
      <sparseX i="269" alpha="14921.816921509464" sparseCutoff="1.0000000000000000"/>
      <sparseX i="270" alpha="21840.175134426878" sparseCutoff="1.0000000000000000"/>
      <sparseX i="271" alpha="9325.9318160846487" sparseCutoff="1.0000000000000000"/>
      <sparseX i="272" alpha="2842.8413538292471" sparseCutoff="1.0000000000000000"/>
      <sparseX i="273" alpha="-10035.438679741943" sparseCutoff="1.0000000000000000"/>
      <sparseX i="274" alpha="1378.4644880540488" sparseCutoff="1.0000000000000000"/>
      <sparseX i="275" alpha="6347.8659354062111" sparseCutoff="1.0000000000000000"/>
      <sparseX i="276" alpha="-26078.238928737119" sparseCutoff="1.0000000000000000"/>
      <sparseX i="277" alpha="73432.719517092453" sparseCutoff="1.0000000000000000"/>
      <sparseX i="278" alpha="39842.069692343241" sparseCutoff="1.0000000000000000"/>
      <sparseX i="279" alpha="7075.7481810459458" sparseCutoff="1.0000000000000000"/>
      <sparseX i="280" alpha="4428.5922271120580" sparseCutoff="1.0000000000000000"/>
      <sparseX i="281" alpha="-45306.526195644561" sparseCutoff="1.0000000000000000"/>
      <sparseX i="282" alpha="-2983.5201185632145" sparseCutoff="1.0000000000000000"/>
      <sparseX i="283" alpha="9285.1955152612863" sparseCutoff="1.0000000000000000"/>
      <sparseX i="284" alpha="-5708.1391592748896" sparseCutoff="1.0000000000000000"/>
      <sparseX i="285" alpha="10128.466123590348" sparseCutoff="1.0000000000000000"/>
      <sparseX i="286" alpha="1510.6171824156368" sparseCutoff="1.0000000000000000"/>
      <sparseX i="287" alpha="-7939.9696527099914" sparseCutoff="1.0000000000000000"/>
      <sparseX i="288" alpha="-45047.369162715324" sparseCutoff="1.0000000000000000"/>
      <sparseX i="289" alpha="-8409.2356118102252" sparseCutoff="1.0000000000000000"/>
      <sparseX i="290" alpha="-53259.084603559546" sparseCutoff="1.0000000000000000"/>
      <sparseX i="291" alpha="-35864.899991487982" sparseCutoff="1.0000000000000000"/>
      <sparseX i="292" alpha="-12346.774971385768" sparseCutoff="1.0000000000000000"/>
      <sparseX i="293" alpha="-25618.250418455282" sparseCutoff="1.0000000000000000"/>
      <sparseX i="294" alpha="30310.776028488090" sparseCutoff="1.0000000000000000"/>
      <sparseX i="295" alpha="-40683.512173961193" sparseCutoff="1.0000000000000000"/>
      <sparseX i="296" alpha="-33383.395501116182" sparseCutoff="1.0000000000000000"/>
      <sparseX i="297" alpha="-19650.286490168604" sparseCutoff="1.0000000000000000"/>
      <sparseX i="298" alpha="25773.790968608617" sparseCutoff="1.0000000000000000"/>
      <sparseX i="299" alpha="-5615.2250013332596" sparseCutoff="1.0000000000000000"/>
      <sparseX i="300" alpha="11733.645296754778" sparseCutoff="1.0000000000000000"/>
      <sparseX i="301" alpha="301.23502328888196" sparseCutoff="1.0000000000000000"/>
      <sparseX i="302" alpha="-7915.1835075069503" sparseCutoff="1.0000000000000000"/>
      <sparseX i="303" alpha="-3275.5799356064881" sparseCutoff="1.0000000000000000"/>
      <sparseX i="304" alpha="-69504.512402378256" sparseCutoff="1.0000000000000000"/>
      <sparseX i="305" alpha="1007.6189745312239" sparseCutoff="1.0000000000000000"/>
      <sparseX i="306" alpha="-20573.695995100981" sparseCutoff="1.0000000000000000"/>
      <sparseX i="307" alpha="-4472.2936311118337" sparseCutoff="1.0000000000000000"/>
      <sparseX i="308" alpha="-8985.7845314200986" sparseCutoff="1.0000000000000000"/>
      <sparseX i="309" alpha="4755.3826623355153" sparseCutoff="1.0000000000000000"/>
      <sparseX i="310" alpha="49589.342791294541" sparseCutoff="1.0000000000000000"/>
      <sparseX i="311" alpha="-1587.0449723942004" sparseCutoff="1.0000000000000000"/>
      <sparseX i="312" alpha="3454.3220259449868" sparseCutoff="1.0000000000000000"/>
      <sparseX i="313" alpha="34593.814262293919" sparseCutoff="1.0000000000000000"/>
      <sparseX i="314" alpha="6769.8774635746031" sparseCutoff="1.0000000000000000"/>
      <sparseX i="315" alpha="-7657.0854890941437" sparseCutoff="1.0000000000000000"/>
      <sparseX i="316" alpha="-16589.774190217089" sparseCutoff="1.0000000000000000"/>
      <sparseX i="317" alpha="419.30937068352125" sparseCutoff="1.0000000000000000"/>
      <sparseX i="318" alpha="-22783.936390574901" sparseCutoff="1.0000000000000000"/>
      <sparseX i="319" alpha="-1237.8734122103760" sparseCutoff="1.0000000000000000"/>
      <sparseX i="320" alpha="-10261.209368762284" sparseCutoff="1.0000000000000000"/>
      <sparseX i="321" alpha="12482.486800247982" sparseCutoff="1.0000000000000000"/>
      <sparseX i="322" alpha="-45423.405287340101" sparseCutoff="1.0000000000000000"/>
      <sparseX i="323" alpha="-13539.246179305021" sparseCutoff="1.0000000000000000"/>
      <sparseX i="324" alpha="35980.077521616011" sparseCutoff="1.0000000000000000"/>
      <sparseX i="325" alpha="-13381.000322950216" sparseCutoff="1.0000000000000000"/>
      <sparseX i="326" alpha="-11692.444204450112" sparseCutoff="1.0000000000000000"/>
      <sparseX i="327" alpha="61293.827907119063" sparseCutoff="1.0000000000000000"/>
      <sparseX i="328" alpha="15975.399840537575" sparseCutoff="1.0000000000000000"/>
      <sparseX i="329" alpha="40526.497405133989" sparseCutoff="1.0000000000000000"/>
      <sparseX i="330" alpha="-59072.908703992412" sparseCutoff="1.0000000000000000"/>
      <sparseX i="331" alpha="-57692.923799254175" sparseCutoff="1.0000000000000000"/>
      <sparseX i="332" alpha="58886.166600657249" sparseCutoff="1.0000000000000000"/>
      <sparseX i="333" alpha="-26143.712209759105" sparseCutoff="1.0000000000000000"/>
      <sparseX i="334" alpha="-13816.908311759575" sparseCutoff="1.0000000000000000"/>
      <sparseX i="335" alpha="16093.934858325911" sparseCutoff="1.0000000000000000"/>
      <sparseX i="336" alpha="20118.433274059080" sparseCutoff="1.0000000000000000"/>
      <sparseX i="337" alpha="-47699.028927186584" sparseCutoff="1.0000000000000000"/>
      <sparseX i="338" alpha="-7026.9954766217770" sparseCutoff="1.0000000000000000"/>
      <sparseX i="339" alpha="17732.378175983216" sparseCutoff="1.0000000000000000"/>
      <sparseX i="340" alpha="2908.6520203939390" sparseCutoff="1.0000000000000000"/>
      <sparseX i="341" alpha="22388.097839942107" sparseCutoff="1.0000000000000000"/>
      <sparseX i="342" alpha="-1529.8037838438629" sparseCutoff="1.0000000000000000"/>
      <sparseX i="343" alpha="-4080.2480290399812" sparseCutoff="1.0000000000000000"/>
      <sparseX i="344" alpha="-79870.783099795794" sparseCutoff="1.0000000000000000"/>
      <sparseX i="345" alpha="-11426.083969013114" sparseCutoff="1.0000000000000000"/>
      <sparseX i="346" alpha="-3498.6305609420824" sparseCutoff="1.0000000000000000"/>
      <sparseX i="347" alpha="-15753.604460112319" sparseCutoff="1.0000000000000000"/>
      <sparseX i="348" alpha="-19002.385467374646" sparseCutoff="1.0000000000000000"/>
      <sparseX i="349" alpha="-1342.2249171075841" sparseCutoff="1.0000000000000000"/>
      <sparseX i="350" alpha="-7112.0019847285557" sparseCutoff="1.0000000000000000"/>
      <sparseX i="351" alpha="-5866.6668012226983" sparseCutoff="1.0000000000000000"/>
      <sparseX i="352" alpha="60828.190859277849" sparseCutoff="1.0000000000000000"/>
      <sparseX i="353" alpha="7506.9514060614456" sparseCutoff="1.0000000000000000"/>
      <sparseX i="354" alpha="-631.33958656702634" sparseCutoff="1.0000000000000000"/>
      <sparseX i="355" alpha="7343.7173811821331" sparseCutoff="1.0000000000000000"/>
      <sparseX i="356" alpha="-50397.010133254895" sparseCutoff="1.0000000000000000"/>
      <sparseX i="357" alpha="69462.684243323063" sparseCutoff="1.0000000000000000"/>
      <sparseX i="358" alpha="-4158.5321840648385" sparseCutoff="1.0000000000000000"/>
      <sparseX i="359" alpha="74.168960401868645" sparseCutoff="1.0000000000000000"/>
      <sparseX i="360" alpha="-3944.8072432309968" sparseCutoff="1.0000000000000000"/>
      <sparseX i="361" alpha="15863.290049770929" sparseCutoff="1.0000000000000000"/>
      <sparseX i="362" alpha="1908.3734420112453" sparseCutoff="1.0000000000000000"/>
      <sparseX i="363" alpha="38581.444477529592" sparseCutoff="1.0000000000000000"/>
      <sparseX i="364" alpha="52823.708641728022" sparseCutoff="1.0000000000000000"/>
      <sparseX i="365" alpha="-14152.805105423677" sparseCutoff="1.0000000000000000"/>
      <sparseX i="366" alpha="-15223.764625806409" sparseCutoff="1.0000000000000000"/>
      <sparseX i="367" alpha="-4977.1045417921596" sparseCutoff="1.0000000000000000"/>
      <sparseX i="368" alpha="-756.00123403861460" sparseCutoff="1.0000000000000000"/>
      <sparseX i="369" alpha="-106089.83192892063" sparseCutoff="1.0000000000000000"/>
      <sparseX i="370" alpha="-21975.347395249217" sparseCutoff="1.0000000000000000"/>
      <sparseX i="371" alpha="-11652.823098232042" sparseCutoff="1.0000000000000000"/>
      <sparseX i="372" alpha="17423.943572762142" sparseCutoff="1.0000000000000000"/>
      <sparseX i="373" alpha="-10979.563429076396" sparseCutoff="1.0000000000000000"/>
      <sparseX i="374" alpha="-3896.3007763670139" sparseCutoff="1.0000000000000000"/>
      <sparseX i="375" alpha="6285.2269529746654" sparseCutoff="1.0000000000000000"/>
      <sparseX i="376" alpha="10247.209265465601" sparseCutoff="1.0000000000000000"/>
      <sparseX i="377" alpha="11974.829515479534" sparseCutoff="1.0000000000000000"/>
      <sparseX i="378" alpha="-227.70205323723204" sparseCutoff="1.0000000000000000"/>
      <sparseX i="379" alpha="-2060.2835254875390" sparseCutoff="1.0000000000000000"/>
      <sparseX i="380" alpha="3735.0170113595668" sparseCutoff="1.0000000000000000"/>
      <sparseX i="381" alpha="9652.9231649605663" sparseCutoff="1.0000000000000000"/>
      <sparseX i="382" alpha="-28461.967318458446" sparseCutoff="1.0000000000000000"/>
      <sparseX i="383" alpha="-1189.4037564913510" sparseCutoff="1.0000000000000000"/>
      <sparseX i="384" alpha="-15853.519785165037" sparseCutoff="1.0000000000000000"/>
      <sparseX i="385" alpha="-1187.8385883643516" sparseCutoff="1.0000000000000000"/>
      <sparseX i="386" alpha="92828.067458087608" sparseCutoff="1.0000000000000000"/>
      <sparseX i="387" alpha="-48841.032150199477" sparseCutoff="1.0000000000000000"/>
      <sparseX i="388" alpha="21485.300097399188" sparseCutoff="1.0000000000000000"/>
      <sparseX i="389" alpha="-53227.039430384590" sparseCutoff="1.0000000000000000"/>
      <sparseX i="390" alpha="-10811.822264909457" sparseCutoff="1.0000000000000000"/>
      <sparseX i="391" alpha="29690.888504660863" sparseCutoff="1.0000000000000000"/>
      <sparseX i="392" alpha="69643.377691495858" sparseCutoff="1.0000000000000000"/>
      <sparseX i="393" alpha="27334.444594325974" sparseCutoff="1.0000000000000000"/>
      <sparseX i="394" alpha="-2002.6952791068193" sparseCutoff="1.0000000000000000"/>
      <sparseX i="395" alpha="4484.8723223573488" sparseCutoff="1.0000000000000000"/>
      <sparseX i="396" alpha="-10460.002561955860" sparseCutoff="1.0000000000000000"/>
      <sparseX i="397" alpha="16204.142607646827" sparseCutoff="1.0000000000000000"/>
      <sparseX i="398" alpha="8056.3164028236715" sparseCutoff="1.0000000000000000"/>
      <sparseX i="399" alpha="-5509.0993356154631" sparseCutoff="1.0000000000000000"/>
      <sparseX i="400" alpha="-38314.475627070598" sparseCutoff="1.0000000000000000"/>
      <sparseX i="401" alpha="-9972.4344950131454" sparseCutoff="1.0000000000000000"/>
      <sparseX i="402" alpha="-15829.033915980903" sparseCutoff="1.0000000000000000"/>
      <sparseX i="403" alpha="2862.4140328398457" sparseCutoff="1.0000000000000000"/>
      <sparseX i="404" alpha="-14636.157971177974" sparseCutoff="1.0000000000000000"/>
      <sparseX i="405" alpha="36005.029263250588" sparseCutoff="1.0000000000000000"/>
      <sparseX i="406" alpha="-410.76210534991355" sparseCutoff="1.0000000000000000"/>
      <sparseX i="407" alpha="3.3898968251680928" sparseCutoff="1.0000000000000000"/>
      <sparseX i="408" alpha="-3872.8427234978008" sparseCutoff="1.0000000000000000"/>
      <sparseX i="409" alpha="-3706.9164328911861" sparseCutoff="1.0000000000000000"/>
      <sparseX i="410" alpha="20946.560688640580" sparseCutoff="1.0000000000000000"/>
      <sparseX i="411" alpha="-11294.161679913799" sparseCutoff="1.0000000000000000"/>
      <sparseX i="412" alpha="-5042.9656399817350" sparseCutoff="1.0000000000000000"/>
      <sparseX i="413" alpha="-22553.640111646622" sparseCutoff="1.0000000000000000"/>
      <sparseX i="414" alpha="4318.2476956170030" sparseCutoff="1.0000000000000000"/>
      <sparseX i="415" alpha="16528.361556057989" sparseCutoff="1.0000000000000000"/>
      <sparseX i="416" alpha="16397.646155765124" sparseCutoff="1.0000000000000000"/>
      <sparseX i="417" alpha="3301.6586298551820" sparseCutoff="1.0000000000000000"/>
      <sparseX i="418" alpha="-13925.064162391789" sparseCutoff="1.0000000000000000"/>
      <sparseX i="419" alpha="-6812.5593390911845" sparseCutoff="1.0000000000000000"/>
      <sparseX i="420" alpha="60168.674555608421" sparseCutoff="1.0000000000000000"/>
      <sparseX i="421" alpha="-2952.0936872841121" sparseCutoff="1.0000000000000000"/>
      <sparseX i="422" alpha="-12019.580385321075" sparseCutoff="1.0000000000000000"/>
      <sparseX i="423" alpha="-11438.522048671584" sparseCutoff="1.0000000000000000"/>
      <sparseX i="424" alpha="-2589.1371955309742" sparseCutoff="1.0000000000000000"/>
      <sparseX i="425" alpha="-4465.7704340909122" sparseCutoff="1.0000000000000000"/>
      <sparseX i="426" alpha="-23609.343936718531" sparseCutoff="1.0000000000000000"/>
      <sparseX i="427" alpha="35.347675622206360" sparseCutoff="1.0000000000000000"/>
      <sparseX i="428" alpha="-5033.5289369837392" sparseCutoff="1.0000000000000000"/>
      <sparseX i="429" alpha="-2786.8556384904000" sparseCutoff="1.0000000000000000"/>
      <sparseX i="430" alpha="13307.737331066824" sparseCutoff="1.0000000000000000"/>
      <sparseX i="431" alpha="-2520.4845110615479" sparseCutoff="1.0000000000000000"/>
      <sparseX i="432" alpha="5538.8438244793297" sparseCutoff="1.0000000000000000"/>
      <sparseX i="433" alpha="-587.62554949056346" sparseCutoff="1.0000000000000000"/>
      <sparseX i="434" alpha="7328.1996085079272" sparseCutoff="1.0000000000000000"/>
      <sparseX i="435" alpha="358.23603731981586" sparseCutoff="1.0000000000000000"/>
      <sparseX i="436" alpha="1751.3666963817539" sparseCutoff="1.0000000000000000"/>
      <sparseX i="437" alpha="3874.9128558663047" sparseCutoff="1.0000000000000000"/>
      <sparseX i="438" alpha="-5639.9871350980302" sparseCutoff="1.0000000000000000"/>
      <sparseX i="439" alpha="-27156.551796195399" sparseCutoff="1.0000000000000000"/>
      <sparseX i="440" alpha="-23711.080161913727" sparseCutoff="1.0000000000000000"/>
      <sparseX i="441" alpha="7207.9431365987375" sparseCutoff="1.0000000000000000"/>
      <sparseX i="442" alpha="16766.820120670349" sparseCutoff="1.0000000000000000"/>
      <sparseX i="443" alpha="21460.415715694937" sparseCutoff="1.0000000000000000"/>
      <sparseX i="444" alpha="-24718.033164073222" sparseCutoff="1.0000000000000000"/>
      <sparseX i="445" alpha="7580.0580615700801" sparseCutoff="1.0000000000000000"/>
      <sparseX i="446" alpha="-49194.788994678915" sparseCutoff="1.0000000000000000"/>
      <sparseX i="447" alpha="-2381.5783260031985" sparseCutoff="1.0000000000000000"/>
      <sparseX i="448" alpha="28217.719454902352" sparseCutoff="1.0000000000000000"/>
      <sparseX i="449" alpha="613.51985875542562" sparseCutoff="1.0000000000000000"/>
      <sparseX i="450" alpha="-27500.627417676755" sparseCutoff="1.0000000000000000"/>
      <sparseX i="451" alpha="22138.505438647186" sparseCutoff="1.0000000000000000"/>
      <sparseX i="452" alpha="4404.9625606676254" sparseCutoff="1.0000000000000000"/>
      <sparseX i="453" alpha="21827.359013792237" sparseCutoff="1.0000000000000000"/>
      <sparseX i="454" alpha="37110.258990588896" sparseCutoff="1.0000000000000000"/>
      <sparseX i="455" alpha="14177.710403683726" sparseCutoff="1.0000000000000000"/>
      <sparseX i="456" alpha="-2015.6942557513730" sparseCutoff="1.0000000000000000"/>
      <sparseX i="457" alpha="14904.936522830878" sparseCutoff="1.0000000000000000"/>
      <sparseX i="458" alpha="5412.4695678099397" sparseCutoff="1.0000000000000000"/>
      <sparseX i="459" alpha="2194.4164596258870" sparseCutoff="1.0000000000000000"/>
      <sparseX i="460" alpha="-10297.878116572301" sparseCutoff="1.0000000000000000"/>
      <sparseX i="461" alpha="-28133.630694160867" sparseCutoff="1.0000000000000000"/>
      <sparseX i="462" alpha="3089.8244549110059" sparseCutoff="1.0000000000000000"/>
      <sparseX i="463" alpha="-107082.41475755211" sparseCutoff="1.0000000000000000"/>
      <sparseX i="464" alpha="57960.723841204992" sparseCutoff="1.0000000000000000"/>
      <sparseX i="465" alpha="-21355.005023252885" sparseCutoff="1.0000000000000000"/>
      <sparseX i="466" alpha="36478.061673570308" sparseCutoff="1.0000000000000000"/>
      <sparseX i="467" alpha="49559.289002366961" sparseCutoff="1.0000000000000000"/>
      <sparseX i="468" alpha="70430.948702040274" sparseCutoff="1.0000000000000000"/>
      <sparseX i="469" alpha="-5040.3818351018617" sparseCutoff="1.0000000000000000"/>
      <sparseX i="470" alpha="11337.266757575324" sparseCutoff="1.0000000000000000"/>
      <sparseX i="471" alpha="-19653.353305307028" sparseCutoff="1.0000000000000000"/>
      <sparseX i="472" alpha="-58914.631060940395" sparseCutoff="1.0000000000000000"/>
      <sparseX i="473" alpha="-1430.5882518449403" sparseCutoff="1.0000000000000000"/>
      <sparseX i="474" alpha="29927.900155137089" sparseCutoff="1.0000000000000000"/>
      <sparseX i="475" alpha="-15641.940335032012" sparseCutoff="1.0000000000000000"/>
      <sparseX i="476" alpha="-57124.301099137956" sparseCutoff="1.0000000000000000"/>
      <sparseX i="477" alpha="-38683.599431208444" sparseCutoff="1.0000000000000000"/>
      <sparseX i="478" alpha="92689.264813797330" sparseCutoff="1.0000000000000000"/>
      <sparseX i="479" alpha="-1826.9049284963749" sparseCutoff="1.0000000000000000"/>
      <sparseX i="480" alpha="-4436.0477284774761" sparseCutoff="1.0000000000000000"/>
      <sparseX i="481" alpha="-7864.5645660502887" sparseCutoff="1.0000000000000000"/>
      <sparseX i="482" alpha="-6606.3867317542436" sparseCutoff="1.0000000000000000"/>
      <sparseX i="483" alpha="45424.773930121890" sparseCutoff="1.0000000000000000"/>
      <sparseX i="484" alpha="10909.864429370380" sparseCutoff="1.0000000000000000"/>
      <sparseX i="485" alpha="24864.303771570656" sparseCutoff="1.0000000000000000"/>
      <sparseX i="486" alpha="-416.70135328279810" sparseCutoff="1.0000000000000000"/>
      <sparseX i="487" alpha="6884.4983491485336" sparseCutoff="1.0000000000000000"/>
      <sparseX i="488" alpha="-38179.263806957104" sparseCutoff="1.0000000000000000"/>
      <sparseX i="489" alpha="3824.2283983712291" sparseCutoff="1.0000000000000000"/>
      <sparseX i="490" alpha="-9360.9754625450405" sparseCutoff="1.0000000000000000"/>
      <sparseX i="491" alpha="31118.199012885347" sparseCutoff="1.0000000000000000"/>
      <sparseX i="492" alpha="-33078.137361352994" sparseCutoff="1.0000000000000000"/>
      <sparseX i="493" alpha="-4381.2083605673388" sparseCutoff="1.0000000000000000"/>
      <sparseX i="494" alpha="-71064.137114498779" sparseCutoff="1.0000000000000000"/>
      <sparseX i="495" alpha="-13997.453061156833" sparseCutoff="1.0000000000000000"/>
      <sparseX i="496" alpha="-26715.946842338399" sparseCutoff="1.0000000000000000"/>
      <sparseX i="497" alpha="-2078.6124159599708" sparseCutoff="1.0000000000000000"/>
      <sparseX i="498" alpha="28863.761601290003" sparseCutoff="1.0000000000000000"/>
      <sparseX i="499" alpha="-1706.1829085437494" sparseCutoff="1.0000000000000000"/>
      <sparseX i="500" alpha="-4800.7025870478219" sparseCutoff="1.0000000000000000"/>
    </gpCoordinates>
  </gpSparse>
  <command_line><![CDATA[ energy_parameter_name=free_energy force_parameter_name=DUMMY virial_parameter_name=DUMMY at_file=a_C_db_train.xyz gap="SOAP cutoff=3.0 l_max=4 n_max=4 atom_sigma=0.5 zeta=4 delta=1.0  n_species=1 species_Z=6   n_sparse=500 sparse_method=cur_points covariance_type=dot_product" default_sigma={0.001 0.01 0.0 0.0} e0=0.0 do_copy_at_file=F gp_file=dbs/C_GAP.xml]]></command_line>
</GAP_params>
</GAP_2025_8_7_0_21_5_39_686>
